digraph Tree {
node [shape=box, style="filled, rounded", color="black", fontname=helvetica] ;
edge [fontname=helvetica] ;
0 [label="X[785506] <= 1.5\ngini = 0.5\nsamples = 361\nvalue = [282, 278]", fillcolor="#e5813904"] ;
1 [label="X[144768] <= 214.5\ngini = 0.35\nsamples = 176\nvalue = [203, 58]", fillcolor="#e58139b6"] ;
0 -> 1 [labeldistance=2.5, labelangle=45, headlabel="True"] ;
2 [label="X[377777] <= 22.5\ngini = 0.3\nsamples = 165\nvalue = [201, 45]", fillcolor="#e58139c6"] ;
1 -> 2 ;
3 [label="X[563437] <= 156.0\ngini = 0.49\nsamples = 20\nvalue = [12, 15]", fillcolor="#399de533"] ;
2 -> 3 ;
4 [label="gini = 0.24\nsamples = 11\nvalue = [12, 2]", fillcolor="#e58139d4"] ;
3 -> 4 ;
5 [label="gini = 0.0\nsamples = 9\nvalue = [0, 13]", fillcolor="#399de5ff"] ;
3 -> 5 ;
6 [label="X[108123] <= 198.0\ngini = 0.24\nsamples = 145\nvalue = [189, 30]", fillcolor="#e58139d7"] ;
2 -> 6 ;
7 [label="gini = 0.19\nsamples = 138\nvalue = [186, 22]", fillcolor="#e58139e1"] ;
6 -> 7 ;
8 [label="gini = 0.4\nsamples = 7\nvalue = [3, 8]", fillcolor="#399de59f"] ;
6 -> 8 ;
9 [label="X[384909] <= 217.5\ngini = 0.23\nsamples = 11\nvalue = [2, 13]", fillcolor="#399de5d8"] ;
1 -> 9 ;
10 [label="gini = 0.0\nsamples = 9\nvalue = [0, 13]", fillcolor="#399de5ff"] ;
9 -> 10 ;
11 [label="gini = 0.0\nsamples = 2\nvalue = [2, 0]", fillcolor="#e58139ff"] ;
9 -> 11 ;
12 [label="X[124363] <= 136.5\ngini = 0.39\nsamples = 185\nvalue = [79, 220]", fillcolor="#399de5a3"] ;
0 -> 12 [labeldistance=2.5, labelangle=-45, headlabel="False"] ;
13 [label="X[154444] <= 201.0\ngini = 0.46\nsamples = 56\nvalue = [58, 32]", fillcolor="#e5813972"] ;
12 -> 13 ;
14 [label="X[72740] <= 156.5\ngini = 0.27\nsamples = 43\nvalue = [57, 11]", fillcolor="#e58139ce"] ;
13 -> 14 ;
15 [label="gini = 0.12\nsamples = 37\nvalue = [57, 4]", fillcolor="#e58139ed"] ;
14 -> 15 ;
16 [label="gini = 0.0\nsamples = 6\nvalue = [0, 7]", fillcolor="#399de5ff"] ;
14 -> 16 ;
17 [label="X[394025] <= 208.5\ngini = 0.09\nsamples = 13\nvalue = [1, 21]", fillcolor="#399de5f3"] ;
13 -> 17 ;
18 [label="gini = 0.0\nsamples = 1\nvalue = [1, 0]", fillcolor="#e58139ff"] ;
17 -> 18 ;
19 [label="gini = 0.0\nsamples = 12\nvalue = [0, 21]", fillcolor="#399de5ff"] ;
17 -> 19 ;
20 [label="X[479202] <= 101.5\ngini = 0.18\nsamples = 129\nvalue = [21, 188]", fillcolor="#399de5e3"] ;
12 -> 20 ;
21 [label="X[606327] <= 226.0\ngini = 0.1\nsamples = 117\nvalue = [10, 181]", fillcolor="#399de5f1"] ;
20 -> 21 ;
22 [label="gini = 0.07\nsamples = 115\nvalue = [7, 181]", fillcolor="#399de5f5"] ;
21 -> 22 ;
23 [label="gini = 0.0\nsamples = 2\nvalue = [3, 0]", fillcolor="#e58139ff"] ;
21 -> 23 ;
24 [label="X[389159] <= 156.0\ngini = 0.48\nsamples = 12\nvalue = [11, 7]", fillcolor="#e581395d"] ;
20 -> 24 ;
25 [label="gini = 0.0\nsamples = 7\nvalue = [11, 0]", fillcolor="#e58139ff"] ;
24 -> 25 ;
26 [label="gini = 0.0\nsamples = 5\nvalue = [0, 7]", fillcolor="#399de5ff"] ;
24 -> 26 ;
}